{
  "layers": [
    {
      "activation": 1,
      "biases": [
        -2.8143247160082874,
        12.489631807836725,
        10.214617205444382
      ],
      "cols": 3,
      "rows": 2,
      "weights": [
        [
          15.964531235305477,
          -7.479791169613311,
          23.490775259023078
        ],
        [
          0.32831851841020815,
          -9.180467336362044,
          -15.531206887724801
        ]
      ]
    },
    {
      "activation": 1,
      "biases": [
        0.2741720991245946,
        0.4782363264698451,
        7.343612138916032,
        -0.7017553764685466,
        0.7446103633549297,
        -12.23928465230267,
        1.6857462132853205,
        5.772823693384618,
        -4.634441946477342,
        1.1209430877351458
      ],
      "cols": 10,
      "rows": 3,
      "weights": [
        [
          -3.0486388201312282,
          -0.8637287070739765,
          0.7738950133061415,
          4.092885545340757,
          -0.4538559612847416,
          6.878442898037609,
          -0.22543911497461522,
          -0.876103368173372,
          1.545930578638238,
          -2.2906653992714356
        ],
        [
          -0.6421815407894502,
          -0.7731306131061731,
          0.657805741261684,
          -0.9440467349010618,
          -0.40617790659585845,
          6.14815883144969,
          -0.20185297178260891,
          -7.645126506850284,
          1.3825382667315502,
          -2.0556979311402643
        ],
        [
          2.93352137666707,
          0.8541975198171178,
          -7.5385911694980265,
          -0.5825724189578075,
          -0.5463946029402298,
          5.4172549793587805,
          0.2230884185050849,
          1.1162460271703458,
          3.4218051057781356,
          2.96720952258468
        ]
      ]
    }
  ]
}
